digraph Tree {
node [shape=box, style="filled, rounded", color="black", fontname="helvetica"] ;
edge [fontname="helvetica"] ;
0 [label="Role_Data_Scientist <= 0.5\nsquared_error = 293992539.703\nsamples = 233\nvalue = 49515.838", fillcolor="#f7d9c4"] ;
1 [label="Other_Exp <= 0.926\nsquared_error = 129699849.787\nsamples = 100\nvalue = 67462.914", fillcolor="#f0b68d"] ;
0 -> 1 [labeldistance=2.5, labelangle=45, headlabel="True"] ;
2 [label="Otg_Job_Exp <= 1.658\nsquared_error = 48354464.829\nsamples = 55\nvalue = 58884.177", fillcolor="#f3c7a7"] ;
1 -> 2 ;
3 [label="Other_Exp <= 0.756\nsquared_error = 41330675.851\nsamples = 38\nvalue = 56406.731", fillcolor="#f4ccaf"] ;
2 -> 3 ;
4 [label="Otg_Job_Exp <= -0.107\nsquared_error = 16533221.953\nsamples = 27\nvalue = 53548.684", fillcolor="#f6d1b7"] ;
3 -> 4 ;
5 [label="Otg_Job_Exp <= -0.548\nsquared_error = 42139960.938\nsamples = 8\nvalue = 58068.75", fillcolor="#f4c9a9"] ;
4 -> 5 ;
6 [label="Other_Exp <= 0.585\nsquared_error = 422500.0\nsamples = 2\nvalue = 52800.0", fillcolor="#f6d3ba"] ;
5 -> 6 ;
7 [label="squared_error = 0.0\nsamples = 1\nvalue = 52150.0", fillcolor="#f6d4bc"] ;
6 -> 7 ;
8 [label="squared_error = 0.0\nsamples = 1\nvalue = 53450.0", fillcolor="#f6d2b8"] ;
6 -> 8 ;
9 [label="Other_Languages_Dutch <= 0.5\nsquared_error = 43708125.0\nsamples = 6\nvalue = 59825.0", fillcolor="#f3c5a4"] ;
5 -> 9 ;
10 [label="squared_error = 52340400.0\nsamples = 5\nvalue = 59960.0", fillcolor="#f3c5a4"] ;
9 -> 10 ;
11 [label="squared_error = 0.0\nsamples = 1\nvalue = 59150.0", fillcolor="#f3c6a6"] ;
9 -> 11 ;
12 [label="Other_Exp <= -0.353\nsquared_error = 2803622.222\nsamples = 19\nvalue = 52343.333", fillcolor="#f6d4bb"] ;
4 -> 12 ;
13 [label="Other_Exp <= -0.865\nsquared_error = 2568888.889\nsamples = 3\nvalue = 57016.667", fillcolor="#f4cbad"] ;
12 -> 13 ;
14 [label="squared_error = 0.0\nsamples = 1\nvalue = 54750.0", fillcolor="#f5cfb4"] ;
13 -> 14 ;
15 [label="squared_error = 0.0\nsamples = 2\nvalue = 58150.0", fillcolor="#f4c8a9"] ;
13 -> 15 ;
16 [label="Other_Languages_Dutch <= 0.5\nsquared_error = 133401.92\nsamples = 16\nvalue = 51824.074", fillcolor="#f6d5bd"] ;
12 -> 16 ;
17 [label="Other_Exp <= -0.012\nsquared_error = 24600.0\nsamples = 15\nvalue = 51730.0", fillcolor="#f6d5bd"] ;
16 -> 17 ;
18 [label="squared_error = 0.0\nsamples = 13\nvalue = 51750.0", fillcolor="#f6d5bd"] ;
17 -> 18 ;
19 [label="Other_Exp <= 0.244\nsquared_error = 250000.0\nsamples = 2\nvalue = 51500.0", fillcolor="#f6d5be"] ;
17 -> 19 ;
20 [label="squared_error = 0.0\nsamples = 1\nvalue = 51000.0", fillcolor="#f7d6bf"] ;
19 -> 20 ;
21 [label="squared_error = 0.0\nsamples = 1\nvalue = 52000.0", fillcolor="#f6d4bc"] ;
19 -> 21 ;
22 [label="squared_error = 0.0\nsamples = 1\nvalue = 53000.0", fillcolor="#f6d2b9"] ;
16 -> 22 ;
23 [label="Otg_Job_Exp <= 0.114\nsquared_error = 26286938.776\nsamples = 11\nvalue = 64164.286", fillcolor="#f1bd97"] ;
3 -> 23 ;
24 [label="Otg_Job_Exp <= -0.658\nsquared_error = 8268888.889\nsamples = 2\nvalue = 54683.333", fillcolor="#f5cfb4"] ;
23 -> 24 ;
25 [label="squared_error = 0.0\nsamples = 1\nvalue = 58750.0", fillcolor="#f4c7a7"] ;
24 -> 25 ;
26 [label="squared_error = 0.0\nsamples = 1\nvalue = 52650.0", fillcolor="#f6d3ba"] ;
24 -> 26 ;
27 [label="squared_error = 0.0\nsamples = 9\nvalue = 66750.0", fillcolor="#f0b88f"] ;
23 -> 27 ;
28 [label="Other_Exp <= -0.609\nsquared_error = 27294876.543\nsamples = 17\nvalue = 63655.556", fillcolor="#f2be98"] ;
2 -> 28 ;
29 [label="English_Level_Native_or_Bilingual <= 0.5\nsquared_error = 8199263.039\nsamples = 13\nvalue = 61238.095", fillcolor="#f3c2a0"] ;
28 -> 29 ;
30 [label="squared_error = 0.0\nsamples = 1\nvalue = 62000.0", fillcolor="#f2c19e"] ;
29 -> 30 ;
31 [label="squared_error = 8994806.094\nsamples = 12\nvalue = 61157.895", fillcolor="#f3c3a0"] ;
29 -> 31 ;
32 [label="Otg_Job_Exp <= 2.32\nsquared_error = 2084722.222\nsamples = 4\nvalue = 72116.667", fillcolor="#eead7f"] ;
28 -> 32 ;
33 [label="English_Level_Native_or_Bilingual <= 0.5\nsquared_error = 421875.0\nsamples = 2\nvalue = 72875.0", fillcolor="#eeac7c"] ;
32 -> 33 ;
34 [label="squared_error = 0.0\nsamples = 1\nvalue = 72500.0", fillcolor="#eead7e"] ;
33 -> 34 ;
35 [label="squared_error = 0.0\nsamples = 1\nvalue = 74000.0", fillcolor="#edaa79"] ;
33 -> 35 ;
36 [label="Other_Languages_Dutch <= 0.5\nsquared_error = 1960000.0\nsamples = 2\nvalue = 70600.0", fillcolor="#efb083"] ;
32 -> 36 ;
37 [label="squared_error = 0.0\nsamples = 1\nvalue = 69200.0", fillcolor="#efb388"] ;
36 -> 37 ;
38 [label="squared_error = 0.0\nsamples = 1\nvalue = 72000.0", fillcolor="#eeae7f"] ;
36 -> 38 ;
39 [label="Otg_Job_Exp <= -0.769\nsquared_error = 49603610.629\nsamples = 45\nvalue = 76875.694", fillcolor="#eca470"] ;
1 -> 39 ;
40 [label="Other_Exp <= 1.438\nsquared_error = 175791543.21\nsamples = 5\nvalue = 87711.111", fillcolor="#e88f4f"] ;
39 -> 40 ;
41 [label="squared_error = 0.0\nsamples = 1\nvalue = 53550.0", fillcolor="#f6d1b7"] ;
40 -> 41 ;
42 [label="Other_Exp <= 3.005\nsquared_error = 33658710.938\nsamples = 4\nvalue = 91981.25", fillcolor="#e68742"] ;
40 -> 42 ;
43 [label="Other_Exp <= 2.376\nsquared_error = 1086734.694\nsamples = 3\nvalue = 94142.857", fillcolor="#e5833c"] ;
42 -> 43 ;
44 [label="Other_Exp <= 1.95\nsquared_error = 10000.0\nsamples = 2\nvalue = 94800.0", fillcolor="#e5813a"] ;
43 -> 44 ;
45 [label="squared_error = 0.0\nsamples = 1\nvalue = 95000.0", fillcolor="#e58139"] ;
44 -> 45 ;
46 [label="squared_error = 0.0\nsamples = 1\nvalue = 94750.0", fillcolor="#e5813a"] ;
44 -> 46 ;
47 [label="squared_error = 0.0\nsamples = 1\nvalue = 92500.0", fillcolor="#e68641"] ;
43 -> 47 ;
48 [label="squared_error = 0.0\nsamples = 1\nvalue = 76850.0", fillcolor="#eca470"] ;
42 -> 48 ;
49 [label="Other_Languages_Dutch <= 0.5\nsquared_error = 12408395.062\nsamples = 40\nvalue = 75327.778", fillcolor="#eda775"] ;
39 -> 49 ;
50 [label="Otg_Job_Exp <= 1.438\nsquared_error = 6150347.222\nsamples = 26\nvalue = 77091.667", fillcolor="#eca470"] ;
49 -> 50 ;
51 [label="Other_Exp <= 1.353\nsquared_error = 7665704.0\nsamples = 15\nvalue = 78114.0", fillcolor="#eca26c"] ;
50 -> 51 ;
52 [label="squared_error = 0.0\nsamples = 1\nvalue = 88250.0", fillcolor="#e88e4e"] ;
51 -> 52 ;
53 [label="Otg_Job_Exp <= 0.224\nsquared_error = 3525972.222\nsamples = 14\nvalue = 77691.667", fillcolor="#eca36e"] ;
51 -> 53 ;
54 [label="squared_error = 0.0\nsamples = 1\nvalue = 71550.0", fillcolor="#eeae80"] ;
53 -> 54 ;
55 [label="Other_Exp <= 1.865\nsquared_error = 105681.818\nsamples = 13\nvalue = 78250.0", fillcolor="#eca16c"] ;
53 -> 55 ;
56 [label="squared_error = 32766.44\nsamples = 12\nvalue = 78190.476", fillcolor="#eca26c"] ;
55 -> 56 ;
57 [label="squared_error = 0.0\nsamples = 1\nvalue = 79500.0", fillcolor="#eb9f68"] ;
55 -> 57 ;
58 [label="Other_Exp <= 1.097\nsquared_error = 124567.474\nsamples = 11\nvalue = 75588.235", fillcolor="#eda774"] ;
50 -> 58 ;
59 [label="squared_error = 0.0\nsamples = 1\nvalue = 77000.0", fillcolor="#eca470"] ;
58 -> 59 ;
60 [label="squared_error = 0.0\nsamples = 10\nvalue = 75500.0", fillcolor="#eda774"] ;
58 -> 60 ;
61 [label="Other_Exp <= 1.182\nsquared_error = 6256666.667\nsamples = 14\nvalue = 71800.0", fillcolor="#eeae80"] ;
49 -> 61 ;
62 [label="squared_error = 0.0\nsamples = 1\nvalue = 61150.0", fillcolor="#f3c3a0"] ;
61 -> 62 ;
63 [label="Other_Exp <= 2.035\nsquared_error = 614818.75\nsamples = 13\nvalue = 72332.5", fillcolor="#eead7e"] ;
61 -> 63 ;
64 [label="Otg_Job_Exp <= -0.327\nsquared_error = 245000.0\nsamples = 2\nvalue = 72850.0", fillcolor="#eeac7c"] ;
63 -> 64 ;
65 [label="squared_error = 0.0\nsamples = 1\nvalue = 73550.0", fillcolor="#eeab7a"] ;
64 -> 65 ;
66 [label="squared_error = 0.0\nsamples = 1\nvalue = 72500.0", fillcolor="#eead7e"] ;
64 -> 66 ;
67 [label="squared_error = 624480.969\nsamples = 11\nvalue = 72241.176", fillcolor="#eead7e"] ;
63 -> 67 ;
68 [label="Other_Exp <= 0.074\nsquared_error = 32058998.58\nsamples = 133\nvalue = 37141.37", fillcolor="#fcf1e9"] ;
0 -> 68 [labeldistance=2.5, labelangle=-45, headlabel="False"] ;
69 [label="Other_Exp <= -0.609\nsquared_error = 6842693.256\nsamples = 118\nvalue = 35430.206", fillcolor="#fdf4ee"] ;
68 -> 69 ;
70 [label="Otg_Job_Exp <= 0.114\nsquared_error = 4129181.248\nsamples = 68\nvalue = 34623.17", fillcolor="#fdf6f1"] ;
69 -> 70 ;
71 [label="Other_Languages_Dutch <= 0.5\nsquared_error = 2244077.324\nsamples = 64\nvalue = 34283.095", fillcolor="#fdf7f2"] ;
70 -> 71 ;
72 [label="Otg_Job_Exp <= -0.989\nsquared_error = 1134726.194\nsamples = 50\nvalue = 33720.783", fillcolor="#fef8f4"] ;
71 -> 72 ;
73 [label="English_Level_Native_or_Bilingual <= 0.5\nsquared_error = 443571.429\nsamples = 3\nvalue = 32450.0", fillcolor="#fefaf8"] ;
72 -> 73 ;
74 [label="squared_error = 500000.0\nsamples = 2\nvalue = 32500.0", fillcolor="#fefaf7"] ;
73 -> 74 ;
75 [label="squared_error = 0.0\nsamples = 1\nvalue = 32150.0", fillcolor="#fefbf8"] ;
73 -> 75 ;
76 [label="English_Level_Native_or_Bilingual <= 0.5\nsquared_error = 1035945.615\nsamples = 47\nvalue = 33837.829", fillcolor="#fdf8f3"] ;
72 -> 76 ;
77 [label="Otg_Job_Exp <= -0.769\nsquared_error = 1050384.789\nsamples = 25\nvalue = 34143.617", fillcolor="#fdf7f2"] ;
76 -> 77 ;
78 [label="squared_error = 567191.358\nsamples = 10\nvalue = 33705.556", fillcolor="#fef8f4"] ;
77 -> 78 ;
79 [label="Otg_Job_Exp <= -0.548\nsquared_error = 1157259.215\nsamples = 15\nvalue = 34415.517", fillcolor="#fdf6f2"] ;
77 -> 79 ;
80 [label="squared_error = 3698209.877\nsamples = 3\nvalue = 34561.111", fillcolor="#fdf6f1"] ;
79 -> 80 ;
81 [label="squared_error = 0.0\nsamples = 12\nvalue = 34350.0", fillcolor="#fdf7f2"] ;
79 -> 81 ;
82 [label="Otg_Job_Exp <= -0.769\nsquared_error = 615392.39\nsamples = 22\nvalue = 33342.241", fillcolor="#fef9f5"] ;
76 -> 82 ;
83 [label="Other_Exp <= -0.95\nsquared_error = 1182656.25\nsamples = 2\nvalue = 31087.5", fillcolor="#fffdfc"] ;
82 -> 83 ;
84 [label="squared_error = 0.0\nsamples = 1\nvalue = 30000.0", fillcolor="#ffffff"] ;
83 -> 84 ;
85 [label="squared_error = 0.0\nsamples = 1\nvalue = 32175.0", fillcolor="#fefbf8"] ;
83 -> 85 ;
86 [label="Otg_Job_Exp <= -0.548\nsquared_error = 168895.748\nsamples = 20\nvalue = 33509.259", fillcolor="#fef8f4"] ;
82 -> 86 ;
87 [label="squared_error = 0.0\nsamples = 8\nvalue = 33000.0", fillcolor="#fef9f6"] ;
86 -> 87 ;
88 [label="Otg_Job_Exp <= -0.217\nsquared_error = 25951.557\nsamples = 12\nvalue = 33808.824", fillcolor="#fdf8f3"] ;
86 -> 88 ;
89 [label="squared_error = 0.0\nsamples = 1\nvalue = 34250.0", fillcolor="#fdf7f2"] ;
88 -> 89 ;
90 [label="squared_error = 0.0\nsamples = 11\nvalue = 33750.0", fillcolor="#fef8f4"] ;
88 -> 90 ;
91 [label="Otg_Job_Exp <= -0.327\nsquared_error = 735888.43\nsamples = 14\nvalue = 36404.545", fillcolor="#fcf3eb"] ;
71 -> 91 ;
92 [label="Otg_Job_Exp <= -0.548\nsquared_error = 283750.0\nsamples = 3\nvalue = 35050.0", fillcolor="#fdf5f0"] ;
91 -> 92 ;
93 [label="Other_Exp <= -0.95\nsquared_error = 160555.556\nsamples = 2\nvalue = 35283.333", fillcolor="#fdf5ef"] ;
92 -> 93 ;
94 [label="squared_error = 0.0\nsamples = 1\nvalue = 35850.0", fillcolor="#fdf4ed"] ;
93 -> 94 ;
95 [label="squared_error = 0.0\nsamples = 1\nvalue = 35000.0", fillcolor="#fdf5f0"] ;
93 -> 95 ;
96 [label="squared_error = 0.0\nsamples = 1\nvalue = 34350.0", fillcolor="#fdf7f2"] ;
92 -> 96 ;
97 [label="squared_error = 338024.691\nsamples = 11\nvalue = 36705.556", fillcolor="#fcf2eb"] ;
91 -> 97 ;
98 [label="Otg_Job_Exp <= 0.335\nsquared_error = 4649595.918\nsamples = 4\nvalue = 39724.286", fillcolor="#fbece1"] ;
70 -> 98 ;
99 [label="squared_error = 0.0\nsamples = 1\nvalue = 41120.0", fillcolor="#fbe9dd"] ;
98 -> 99 ;
100 [label="Otg_Job_Exp <= 0.555\nsquared_error = 5580018.75\nsamples = 3\nvalue = 38677.5", fillcolor="#fceee5"] ;
98 -> 100 ;
101 [label="Other_Languages_Dutch <= 0.5\nsquared_error = 2080800.0\nsamples = 2\nvalue = 37520.0", fillcolor="#fcf0e8"] ;
100 -> 101 ;
102 [label="squared_error = 0.0\nsamples = 1\nvalue = 36500.0", fillcolor="#fcf2eb"] ;
101 -> 102 ;
103 [label="squared_error = 0.0\nsamples = 1\nvalue = 39560.0", fillcolor="#fbece2"] ;
101 -> 103 ;
104 [label="squared_error = 0.0\nsamples = 1\nvalue = 42150.0", fillcolor="#fae7da"] ;
100 -> 104 ;
105 [label="Other_Exp <= -0.268\nsquared_error = 8444310.518\nsamples = 50\nvalue = 36532.5", fillcolor="#fcf2eb"] ;
69 -> 105 ;
106 [label="English_Level_Native_or_Bilingual <= 0.5\nsquared_error = 13456474.609\nsamples = 18\nvalue = 38328.125", fillcolor="#fcefe6"] ;
105 -> 106 ;
107 [label="Other_Exp <= -0.438\nsquared_error = 13971798.812\nsamples = 17\nvalue = 38085.227", fillcolor="#fcefe6"] ;
106 -> 107 ;
108 [label="squared_error = 0.0\nsamples = 1\nvalue = 37750.0", fillcolor="#fcf0e7"] ;
107 -> 108 ;
109 [label="squared_error = 14631516.44\nsamples = 16\nvalue = 38101.19", fillcolor="#fcefe6"] ;
107 -> 109 ;
110 [label="squared_error = 0.0\nsamples = 1\nvalue = 41000.0", fillcolor="#fbeadd"] ;
106 -> 110 ;
111 [label="Other_Exp <= -0.097\nsquared_error = 4484056.629\nsamples = 32\nvalue = 35789.483", fillcolor="#fdf4ed"] ;
105 -> 111 ;
112 [label="Other_Languages_Dutch <= 0.5\nsquared_error = 6132964.664\nsamples = 20\nvalue = 36036.341", fillcolor="#fdf3ed"] ;
111 -> 112 ;
113 [label="squared_error = 6287640.614\nsamples = 18\nvalue = 35928.378", fillcolor="#fdf4ed"] ;
112 -> 113 ;
114 [label="squared_error = 3597075.0\nsamples = 2\nvalue = 37035.0", fillcolor="#fcf1ea"] ;
112 -> 114 ;
115 [label="squared_error = 5847.751\nsamples = 12\nvalue = 35194.118", fillcolor="#fdf5ef"] ;
111 -> 115 ;
116 [label="Other_Languages_Dutch <= 0.5\nsquared_error = 28693600.0\nsamples = 15\nvalue = 50420.0", fillcolor="#f7d7c1"] ;
68 -> 116 ;
117 [label="squared_error = 187500.0\nsamples = 2\nvalue = 38250.0", fillcolor="#fcefe6"] ;
116 -> 117 ;
118 [label="squared_error = 538548.753\nsamples = 13\nvalue = 52738.095", fillcolor="#f6d3ba"] ;
116 -> 118 ;
}